<?xml version="1.0"?>
<opencv_storage>
<cascade>
  <stageType>BOOST</stageType>
  <featureType>HAAR</featureType>
  <height>24</height>
  <width>24</width>
  <stageParams>
    <boostType>GAB</boostType>
    <minHitRate>9.9500000476837158e-01</minHitRate>
    <maxFalseAlarm>5.0000000000000000e-01</maxFalseAlarm>
    <weightTrimRate>9.4999998807907104e-01</weightTrimRate>
    <maxDepth>1</maxDepth>
    <maxWeakCount>100</maxWeakCount></stageParams>
  <featureParams>
    <maxCatCount>0</maxCatCount>
    <featSize>1</featSize>
    <mode>BASIC</mode></featureParams>
  <stageNum>5</stageNum>
  <stages>
    <!-- stage 0 -->
    <_>
      <maxWeakCount>1</maxWeakCount>
      <stageThreshold>8.0000001192092896e-01</stageThreshold>
      <weakClassifiers>
        <_>
          <internalNodes>
            0 -1 5 3.0857603996992111e-02</internalNodes>
          <leafValues>
            -1. 8.0000001192092896e-01</leafValues></_></weakClassifiers></_>
    <!-- stage 1 -->
    <_>
      <maxWeakCount>1</maxWeakCount>
      <stageThreshold>1.</stageThreshold>
      <weakClassifiers>
        <_>
          <internalNodes>
            0 -1 0 -4.9972243141382933e-04</internalNodes>
          <leafValues>
            1. -1.</leafValues></_></weakClassifiers></_>
    <!-- stage 2 -->
    <_>
      <maxWeakCount>2</maxWeakCount>
      <stageThreshold>-1.3749822974205017e-01</stageThreshold>
      <weakClassifiers>
        <_>
          <internalNodes>
            0 -1 1 -4.1127093136310577e-02</internalNodes>
          <leafValues>
            7.5000000000000000e-01 -9.6039605140686035e-01</leafValues></_>
        <_>
          <internalNodes>
            0 -1 4 4.0222372859716415e-02</internalNodes>
          <leafValues>
            -8.8749825954437256e-01 8.8318479061126709e-01</leafValues></_></weakClassifiers></_>
    <!-- stage 3 -->
    <_>
      <maxWeakCount>2</maxWeakCount>
      <stageThreshold>0.</stageThreshold>
      <weakClassifiers>
        <_>
          <internalNodes>
            0 -1 6 -9.0355366468429565e-02</internalNodes>
          <leafValues>
            1. -9.6078431606292725e-01</leafValues></_>
        <_>
          <internalNodes>
            0 -1 0 -1.3096102047711611e-03</internalNodes>
          <leafValues>
            -1. 1.</leafValues></_></weakClassifiers></_>
    <!-- stage 4 -->
    <_>
      <maxWeakCount>2</maxWeakCount>
      <stageThreshold>-2.0342744886875153e-01</stageThreshold>
      <weakClassifiers>
        <_>
          <internalNodes>
            0 -1 2 -1.9355189800262451e-01</internalNodes>
          <leafValues>
            7.5000000000000000e-01 -9.6039605140686035e-01</leafValues></_>
        <_>
          <internalNodes>
            0 -1 3 -8.7071299552917480e-02</internalNodes>
          <leafValues>
            9.0395492315292358e-01 -9.5342743396759033e-01</leafValues></_></weakClassifiers></_></stages>
  <features>
    <_>
      <rects>
        <_>
          0 0 11 12 -1.</_>
        <_>
          0 6 11 6 2.</_></rects>
      <tilted>0</tilted></_>
    <_>
      <rects>
        <_>
          1 12 14 10 -1.</_>
        <_>
          1 12 7 5 2.</_>
        <_>
          8 17 7 5 2.</_></rects>
      <tilted>0</tilted></_>
    <_>
      <rects>
        <_>
          2 0 18 23 -1.</_>
        <_>
          8 0 6 23 3.</_></rects>
      <tilted>0</tilted></_>
    <_>
      <rects>
        <_>
          2 12 11 12 -1.</_>
        <_>
          2 16 11 4 3.</_></rects>
      <tilted>0</tilted></_>
    <_>
      <rects>
        <_>
          5 11 9 6 -1.</_>
        <_>
          8 11 3 6 3.</_></rects>
      <tilted>0</tilted></_>
    <_>
      <rects>
        <_>
          10 10 9 14 -1.</_>
        <_>
          10 17 9 7 2.</_></rects>
      <tilted>0</tilted></_>
    <_>
      <rects>
        <_>
          12 11 12 11 -1.</_>
        <_>
          16 11 4 11 3.</_></rects>
      <tilted>0</tilted></_></features></cascade>
</opencv_storage>
